
//GowinSemiconductor Technology Co.,Ltd GoAI2.0:Magic Wand!
//Auto Generate Tflite Model Magic Wand Parameters Header File!

#ifndef TFLITE_MAGIC_WAND_PARAMETERS_H_
#define TFLITE_MAGIC_WAND_PARAMETERS_H_

/* Includes ------------------------------------------------*/
#include <stdint.h>

/* Macros ------------------------------------------------*/
#define DEF_L1_CONV_FILTER_WIDTH 3
#define DEF_L1_CONV_FILTER_HEIGHT 4
#define DEF_L1_CONV_FILTER_OUT_DEPTH 8
#define DEF_L1_CONV_FILTER_IN_DEPTH 1
#define DEF_L1_CONV_INPUT_WIDTH 3
#define DEF_L1_CONV_INPUT_HEIGHT 128
#define DEF_L1_CONV_OUTPUT_WIDTH 3
#define DEF_L1_CONV_OUTPUT_HEIGHT 128
#define DEF_L1_CONV_OUTPUT_DEPTH 8
#define DEF_L2_MAXPOOL_OUTPUT_HEIGHT 42
#define DEF_L2_MAXPOOL_OUTPUT_WIDTH 1
#define DEF_L2_MAXPOOL_DEPTH 8
#define DEF_L3_CONV_FILTER_WIDTH 1
#define DEF_L3_CONV_FILTER_HEIGHT 4
#define DEF_L3_CONV_FILTER_OUT_DEPTH 16
#define DEF_L3_CONV_FILTER_IN_DEPTH 8
#define DEF_L3_CONV_OUTPUT_WIDTH 1
#define DEF_L3_CONV_OUTPUT_HEIGHT 42
#define DEF_L3_CONV_OUTPUT_DEPTH 16
#define DEF_L4_MAXPOOL_OUTPUT_HEIGHT 14
#define DEF_L4_MAXPOOL_OUTPUT_WIDTH 1
#define DEF_L4_MAXPOOL_DEPTH 16
#define DEF_L6_FULLYCONNECTED_OUTPUT_DEPTH 16
#define DEF_L6_FULLYCONNECTED_ACCUM_DEPTH 224
#define DEF_L7_FULLYCONNECTED_OUTPUT_DEPTH 4
#define DEF_L7_FULLYCONNECTED_ACCUM_DEPTH 16
#define DEF_L8_SOFTMAX_DEPTH 4

/* Parameters ------------------------------------------------*/
//Layer 1 : Conv2D parameters
const uint8_t L1_CONV_BATCHES = 1;
const uint8_t L1_CONV_STRIDE_WIDTH = 1;
const uint8_t L1_CONV_STRIDE_HEIGHT = 1;
const uint8_t L1_CONV_DILATION_WIDTH_FACTOR = 1;
const uint8_t L1_CONV_DILATION_HEIGHT_FACTOR = 1;
const uint8_t L1_CONV_PAD_WIDTH = 1;
const uint8_t L1_CONV_PAD_HEIGHT = 1;
const uint8_t L1_CONV_INPUT_WIDTH = 3;
const uint8_t L1_CONV_INPUT_HEIGHT = 128;
const uint8_t L1_CONV_INPUT_DEPTH = 1;
const uint8_t L1_CONV_FILTER_WIDTH = 3;
const uint8_t L1_CONV_FILTER_HEIGHT = 4;
const uint8_t L1_CONV_FILTER_OUT_DEPTH = 8;
const uint8_t L1_CONV_FILTER_IN_DEPTH = 1;
const uint8_t L1_CONV_OUTPUT_WIDTH = 3;
const uint8_t L1_CONV_OUTPUT_HEIGHT = 128;
const uint8_t L1_CONV_OUTPUT_DEPTH = 8;
const float L1_CONV_OUTPUT_ACTIVATION_MAX = 3.4028234663852886e+38;
const float L1_CONV_OUTPUT_ACTIVATION_MIN = 0.0;
const float L1_CONV_WT_DATA[DEF_L1_CONV_FILTER_HEIGHT*DEF_L1_CONV_FILTER_WIDTH*DEF_L1_CONV_FILTER_OUT_DEPTH*DEF_L1_CONV_FILTER_IN_DEPTH] = {0.041551,0.034306,0.299141,0.058616,-0.070477,0.090849,-0.112452,-0.007579,-0.177642,-0.006944,0.034482,-0.173232,0.27599,-0.060303,-0.465575,0.162069,-0.205465,-0.049239,-0.105057,0.228436,0.082513,-0.103467,-0.089277,-0.318779,0.025577,-0.079617,-0.084502,0.150598,-0.015622,-0.040459,0.210298,-0.067847,0.032722,0.111909,0.103233,0.105767,-0.061975,0.250786,-0.276536,0.000384,0.035435,-0.383454,-0.230383,-0.112711,0.189441,-0.173548,-0.098685,-0.463142,-0.096042,-0.075746,0.212648,-0.095208,-0.092435,0.201259,-0.007995,-0.102644,-0.089091,-0.12379,0.089886,-0.402456,0.16186,-0.12824,-0.052735,-0.12069,-0.045116,0.027641,0.03437,-0.094435,-0.116601,0.08566,-0.16822,0.058594,-0.462759,-0.179587,-0.024072,0.058756,-0.158429,0.008516,0.137505,-0.084033,-0.22416,0.016816,-0.092633,0.012157,-0.024633,-0.088647,-0.204,0.025562,0.039768,0.050303,0.010208,0.055309,0.127236,-0.02844,-0.046836,0.210179};
const float L1_CONV_BIAS_DATA[DEF_L1_CONV_FILTER_OUT_DEPTH] = {-3.079127,0.273123,-1.517613,0.157843,-2.721349,-1.949612,-1.774965,-2.233096};

//Layer 2 : MaxPool parameters
const uint8_t L2_MAXPOOL_BATCHES = 1;
const uint8_t L2_MAXPOOL_STRIDE_WIDTH = 3;
const uint8_t L2_MAXPOOL_STRIDE_HEIGHT = 3;
const uint8_t L2_MAXPOOL_PAD_WIDTH = 0;
const uint8_t L2_MAXPOOL_PAD_HEIGHT = 0;
const uint8_t L2_MAXPOOL_DEPTH = 8;
const uint8_t L2_MAXPOOL_INPUT_HEIGHT = 128;
const uint8_t L2_MAXPOOL_INPUT_WIDTH = 3;
const uint8_t L2_MAXPOOL_OUTPUT_HEIGHT = 42;
const uint8_t L2_MAXPOOL_OUTPUT_WIDTH = 1;
const uint8_t L2_MAXPOOL_FILTER_HEIGHT = 3;
const uint8_t L2_MAXPOOL_FILTER_WIDTH = 3;
const float L2_MAXPOOL_FLOAT_ACTIVATION_MIN = -3.4028234663852886e+38;
const float L2_MAXPOOL_FLOAT_ACTIVATION_MAX = 3.4028234663852886e+38;

//Layer 3 : Conv2D parameters
const uint8_t L3_CONV_BATCHES = 1;
const uint8_t L3_CONV_STRIDE_WIDTH = 1;
const uint8_t L3_CONV_STRIDE_HEIGHT = 1;
const uint8_t L3_CONV_DILATION_WIDTH_FACTOR = 1;
const uint8_t L3_CONV_DILATION_HEIGHT_FACTOR = 1;
const uint8_t L3_CONV_PAD_WIDTH = 0;
const uint8_t L3_CONV_PAD_HEIGHT = 1;
const uint8_t L3_CONV_INPUT_WIDTH = 1;
const uint8_t L3_CONV_INPUT_HEIGHT = 42;
const uint8_t L3_CONV_INPUT_DEPTH = 8;
const uint8_t L3_CONV_FILTER_WIDTH = 1;
const uint8_t L3_CONV_FILTER_HEIGHT = 4;
const uint8_t L3_CONV_FILTER_OUT_DEPTH = 16;
const uint8_t L3_CONV_FILTER_IN_DEPTH = 8;
const uint8_t L3_CONV_OUTPUT_WIDTH = 1;
const uint8_t L3_CONV_OUTPUT_HEIGHT = 42;
const uint8_t L3_CONV_OUTPUT_DEPTH = 16;
const float L3_CONV_OUTPUT_ACTIVATION_MAX = 3.4028234663852886e+38;
const float L3_CONV_OUTPUT_ACTIVATION_MIN = 0.0;
const float L3_CONV_WT_DATA[DEF_L3_CONV_FILTER_HEIGHT*DEF_L3_CONV_FILTER_WIDTH*DEF_L3_CONV_FILTER_OUT_DEPTH*DEF_L3_CONV_FILTER_IN_DEPTH] = {-0.333618,-0.512404,-0.393882,-0.228426,-0.163093,-0.62615,-0.538581,-0.064842,0.169842,0.446489,-0.141513,0.202182,-0.049815,-0.147211,-0.131316,0.373417,-0.09914,0.095393,-0.071588,0.172503,-0.069403,-0.104611,-0.03983,0.025826,-0.03986,0.149163,-0.06333,-0.026133,-0.033487,-0.038691,-0.033881,0.009649,0.281883,-0.239672,0.018024,-0.234459,-0.300729,-0.785943,-0.429131,0.104064,0.312393,-0.020452,0.029169,-0.307383,0.338954,-0.220237,0.044783,-0.145802,-0.255853,-0.352194,-0.095357,-0.357924,-0.294145,-0.265789,0.064687,-0.075397,-0.045472,-0.289339,0.206516,-0.331684,-0.011149,-0.625554,-0.807679,-0.017732,-0.034348,0.116905,-0.241879,-0.012721,0.022867,-0.08702,0.006027,0.025121,0.007841,0.066237,-0.207207,0.079835,-0.207075,-0.1434,-0.117738,0.456807,-0.112355,-0.182245,-0.057381,0.256835,-0.479844,-0.155796,0.065339,-0.076764,0.078335,-0.361576,0.181922,-0.166389,-0.800186,-0.378604,-0.33467,0.018221,0.080793,0.165487,0.207044,0.13744,-0.036985,0.173261,0.052303,0.071017,0.10845,0.087233,-0.013079,0.134876,-0.064749,-0.009595,-0.24365,0.001503,0.082821,-0.050063,-0.051319,-0.243491,-0.076507,-0.62795,-1.411971,-0.050084,0.0618,-0.126693,-0.065436,-0.480095,-0.009052,-0.887355,-0.763876,-0.056717,-0.077991,0.215747,0.000559,-0.287004,0.014762,0.249768,-0.02741,-0.078506,-0.047694,-0.117633,-0.134764,-0.443485,0.151393,0.044405,0.255778,-0.119717,-0.004446,-0.005409,-0.08899,-0.397215,-0.002407,-0.050847,-0.057143,-0.1041,0.100486,-0.080568,-0.071566,-0.365892,-0.09208,-0.036972,0.179668,-0.108917,-0.188759,-0.102097,-0.000755,0.01435,-0.059995,-0.327199,-0.314933,0.059469,-0.021378,0.066271,0.007992,0.118789,-0.079822,-0.436954,-0.34651,0.263998,0.082701,-0.066674,-0.189786,0.099074,0.000243,-0.293566,-0.222914,-0.090551,0.322488,-0.173318,-0.150244,0.062068,0.213652,0.366884,0.292946,-0.173915,0.1217,0.048412,0.088674,-0.163896,-0.008905,-0.192625,-0.201763,0.442054,0.159444,0.066662,-0.00259,-0.059354,0.186826,-0.062379,-0.27046,-0.186166,-0.02322,0.022743,-0.023334,0.126973,0.28984,-0.248706,-0.39963,-0.311726,-0.061263,0.012641,-0.215986,0.190924,-0.075244,-0.219116,-0.39934,-0.356798,-0.126297,0.024722,-0.078525,-0.101992,0.103537,0.184573,0.695894,-0.099946,-0.131052,0.061877,0.006506,-0.020053,-0.061998,-0.053193,-0.122857,-0.064182,-0.002168,0.137628,0.031687,-0.169864,-0.252374,-0.155827,-0.143508,0.046922,0.008365,-0.155694,0.00934,-0.959899,-0.392005,-0.208569,-0.261641,0.035992,-0.274915,-0.496584,-0.377535,-0.041095,-0.147462,-0.007803,0.167084,0.114353,0.042456,-0.756487,-0.206175,-0.425199,-0.057003,0.068828,0.166175,-0.051297,0.135491,-0.09963,-0.076337,-0.912321,-0.038049,-0.060673,-0.167622,0.019331,0.233721,0.445872,0.261223,-0.258245,0.222869,-0.223256,-0.31557,-0.142063,-0.207709,-0.019881,-0.251461,-0.09695,-0.086434,0.006661,0.08145,-0.100683,-0.04068,0.558964,-0.194838,0.29113,-0.039073,-0.037655,0.072753,-0.040975,-0.001242,0.140149,-0.211783,-0.099293,-0.009578,-0.007416,-0.044346,-0.105887,0.039566,-0.022829,-0.181765,0.034391,0.200339,-0.028922,-0.048271,-0.137439,-0.050296,-0.09156,-0.09,-0.068261,0.523549,0.003108,-0.017057,-0.235671,-0.031369,-0.18301,-0.08676,-0.243163,0.091123,0.027623,0.003252,-0.046076,0.109271,-0.063934,0.082875,-0.247735,-0.174205,-0.23356,-0.298026,0.205212,0.252254,0.13852,0.037465,0.066383,0.014453,-0.285444,-0.203744,-0.151182,0.322064,-0.0569,-0.248584,0.239856,0.230732,-0.242406,-0.234074,-0.047417,0.41606,-0.267632,-0.621724,0.138097,0.333915,-0.206807,-0.197685,-0.517774,0.1351,-0.127301,-0.020638,0.106933,-0.03405,0.090959,0.009821,-0.397542,-0.555485,-0.146932,0.322887,-0.07385,-0.153948,0.16975,0.081381,-0.214896,-0.022665,0.1723,0.207072,-0.826961,-0.63951,-0.416676,-0.857932,-0.03643,-0.133591,0.045377,-0.030853,-0.569888,-0.593411,-0.179828,-0.482796,-0.09538,-0.0126,0.012299,0.104628,-0.29624,-0.526312,-0.157558,-0.418969,0.023159,0.177618,-0.098363,-0.030627,-0.34587,-0.408939,-0.006555,0.081527,0.158516,-0.135917,-0.221737,-0.107796,-0.047982,-0.39107,-0.174824,-0.297102,-0.120187,-0.270392,0.086094,-0.29103,-0.204956,-0.153633,-0.006605,-0.063164,0.029948,-0.028162,-0.239524,0.118333,0.29377,-0.410012,0.049211,-0.053194,-0.14136,-0.122417,-0.148826,0.180205,0.148502,-0.170976,0.04272,-0.215583,-0.056922,0.336152,-0.020893,-0.33037,0.259438,-0.05683,-0.022211,-0.085463,0.143595,0.037212,-0.08573,-0.351985,0.042713,-0.133119,-0.038996,0.023409,0.23698,-0.115591,-0.145562,-0.424326,0.081451,0.028045,0.027694,0.028115,0.10479,-0.155171,-0.16152,-0.377954,-0.095412,-0.163708,-0.050963,0.080506,-0.106488,-0.027546,-0.037208,0.142881,0.021859,-0.052836,-0.099191,-0.061491,-0.014217,-0.116949,-0.017436,0.115554,-0.035053,0.00324,0.281502,0.213712,-0.034189,-0.104849,-0.032655,-0.107222,0.007528,-0.005901,-0.01112,-0.053559,-0.094771,-0.097362,-0.008645,0.174016,-0.012242,-0.002945,-0.051463,0.115327,-0.072497};
const float L3_CONV_BIAS_DATA[DEF_L3_CONV_FILTER_OUT_DEPTH] = {1.140095,0.036301,0.079395,0.880171,-1.340769,-0.374142,-0.635846,-0.234392,-0.605878,0.857341,-1.477509,-0.539744,0.959577,0.212428,-0.083373,0.101837};

//Layer 4 : MaxPool parameters
const uint8_t L4_MAXPOOL_BATCHES = 1;
const uint8_t L4_MAXPOOL_STRIDE_WIDTH = 1;
const uint8_t L4_MAXPOOL_STRIDE_HEIGHT = 3;
const uint8_t L4_MAXPOOL_PAD_WIDTH = 0;
const uint8_t L4_MAXPOOL_PAD_HEIGHT = 0;
const uint8_t L4_MAXPOOL_DEPTH = 16;
const uint8_t L4_MAXPOOL_INPUT_HEIGHT = 42;
const uint8_t L4_MAXPOOL_INPUT_WIDTH = 1;
const uint8_t L4_MAXPOOL_OUTPUT_HEIGHT = 14;
const uint8_t L4_MAXPOOL_OUTPUT_WIDTH = 1;
const uint8_t L4_MAXPOOL_FILTER_HEIGHT = 3;
const uint8_t L4_MAXPOOL_FILTER_WIDTH = 1;
const float L4_MAXPOOL_FLOAT_ACTIVATION_MIN = -3.4028234663852886e+38;
const float L4_MAXPOOL_FLOAT_ACTIVATION_MAX = 3.4028234663852886e+38;

//Layer 5 : Reshape parameters

//Layer 6 : FullyConnected parameters
const uint8_t L6_FULLYCONNECTED_BATCHES = 1;
const uint8_t L6_FULLYCONNECTED_OUTPUT_DEPTH = 16;
const uint8_t L6_FULLYCONNECTED_ACCUM_DEPTH = 224;
const float L6_FULLYCONNECTED_OUTPUT_ACTIVATION_MIN = 0.0;
const float L6_FULLYCONNECTED_OUTPUT_ACTIVATION_MAX = 3.4028234663852886e+38;
const float L6_FULLYCONNECTED_WT_DATA[DEF_L6_FULLYCONNECTED_OUTPUT_DEPTH*DEF_L6_FULLYCONNECTED_ACCUM_DEPTH] = {0.135801,0.405687,-0.043248,0.618931,-0.140752,0.123559,-0.069243,0.304447,-0.156878,0.417549,-0.20877,0.112828,0.644587,0.135502,0.002272,0.013767,0.069548,-0.188445,-0.123091,-0.021318,-0.26673,0.032256,-0.142024,0.016195,-0.133067,0.024358,-0.013189,0.055881,0.343829,0.159249,-0.039154,0.057751,0.09251,0.059186,0.027512,-0.140497,-0.264277,0.005072,-0.075865,0.073693,-0.026763,-0.007185,0.092936,-0.137265,0.217686,0.121315,0.00729,-0.002723,0.048974,-0.079978,-0.110853,-0.064173,-0.285268,0.200203,-0.264044,0.258682,-0.032965,-0.019688,0.209538,-0.052778,0.089101,0.101404,-0.012504,-0.039497,-0.001011,-0.181479,-0.071488,-0.076011,-0.228643,0.037471,-0.060068,0.139593,-0.130326,0.031113,0.183642,-0.055004,0.027009,0.110259,0.080725,-0.023605,-0.081595,-0.252364,-0.138272,0.107012,-0.092135,0.110691,0.054791,0.065435,-0.16596,-0.004767,0.062039,-0.105662,0.126379,-0.059123,0.029569,-0.003578,0.030261,-0.102923,-0.083302,0.046892,-0.010621,0.117585,-0.13839,0.183908,-0.032611,-0.084609,0.151586,-0.102629,0.018876,-0.0239,-0.006323,-0.070763,0.008287,0.291477,-0.061818,-0.016315,0.02591,0.10347,-0.216799,0.166066,-0.064528,0.022895,0.111809,0.022064,0.118124,0.109221,-0.15175,0.018229,-0.067601,0.062523,-0.043137,-0.087193,-0.085617,0.133231,-0.122707,0.126516,0.025707,0.044646,0.09559,0.019451,-0.035098,0.095981,-0.095143,0.013804,0.114177,0.127566,0.026032,-0.016913,-0.150302,0.203682,-0.140601,0.172831,-0.078347,0.026422,0.003281,0.116317,-0.062349,-0.074809,-0.074575,0.003209,0.05622,0.18799,-0.003224,-0.072852,-0.107725,0.024102,-0.246568,0.13202,-0.02731,0.030329,-0.020504,0.17545,0.015239,0.14357,-0.118478,0.046268,0.112979,0.321418,-0.035987,-0.06274,-0.083972,0.061711,-0.244367,0.254479,-0.092082,-0.011233,-0.030986,-0.009428,0.0676,0.191611,-0.241189,0.080733,-0.036664,0.166209,0.062463,-0.061215,-0.044436,0.055341,-0.130966,0.212358,-0.107416,-0.015972,-0.070131,0.064609,-0.074017,0.229591,-0.232509,0.135124,0.183663,-0.074919,0.061075,0.17335,-0.052761,0.050722,-0.002455,0.014264,0.045018,0.001175,-0.042531,0.044951,-0.039174,0.171175,-0.060246,0.145884,-0.298182,0.214907,0.083893,0.010574,-0.02372,-0.04635,-0.077995,0.102835,-0.005673,-0.32685,-0.043474,-0.087662,0.192928,0.276312,-0.290671,-0.021474,0.155301,0.20301,-0.08048,-0.114428,-0.147796,0.011246,0.15356,-0.050639,-0.087188,-0.105229,-0.008753,0.128329,0.153198,-0.055842,0.030725,-0.035235,0.008634,-0.173023,-0.096155,-0.141969,0.003259,0.076326,0.198442,0.083671,-0.237933,-0.095171,-0.00303,0.233179,-0.300288,0.050778,-0.113217,-0.04439,0.049552,-0.273126,-0.089892,-0.261236,-0.180157,0.069949,0.146196,0.172899,0.015127,-0.06791,0.041915,0.210097,-0.225981,-0.04985,0.071842,-0.097565,0.1434,-0.020083,-0.097362,-0.009505,-0.059241,0.035309,0.207768,0.150072,0.063586,-0.022086,-0.083526,0.259873,-0.141961,0.013543,-0.041087,-0.155555,0.134015,-0.163089,-0.025948,-0.123448,-0.037917,0.026847,0.154172,0.194299,-0.078102,-0.079516,-0.083201,0.12546,-0.192499,-0.038313,0.096102,-0.080684,0.014671,-0.246574,-0.060165,-0.102401,-0.120423,0.114511,0.171209,0.167691,-0.031074,-0.014839,-0.098933,0.169824,-0.196111,-0.090312,0.120445,-0.126057,0.01227,-0.108595,-0.279027,-0.106982,-0.034747,0.046535,0.012851,0.106296,-0.065899,-0.036291,-0.071951,0.221923,-0.349303,0.052947,-0.005585,-0.001765,0.103458,-0.301613,0.047557,-0.170484,-0.024349,0.04981,-0.048592,0.076153,-0.034223,-0.155797,-0.063749,0.174454,0.047264,0.19197,0.106892,0.036286,0.193631,-0.015511,0.145975,-0.058008,-0.001612,0.078449,0.126583,0.108196,0.009563,-0.159087,-0.056364,0.194224,-0.126537,0.092422,0.140853,0.030276,0.318964,0.186103,-0.046191,-0.120403,-0.035586,-0.061355,0.243202,-0.217117,-0.009148,-0.217776,-0.160907,0.05635,-0.033829,0.136763,0.092802,0.00097,-0.289552,0.219535,-0.129747,-0.334802,-0.005613,-0.289037,0.032058,-0.310023,0.034405,-0.244742,-0.299135,0.427846,-0.136124,0.346604,-0.176842,0.039192,-0.134646,0.133913,-0.31056,-0.30594,0.030925,-0.755803,-0.711775,-0.283125,0.013192,-0.527194,-0.392956,-0.29793,-0.247744,0.115589,-0.377263,0.141166,-0.409659,-0.269763,-0.620344,0.029934,0.039253,-0.478016,-0.459189,-0.030654,-0.142298,-0.769287,0.000909,-0.575482,0.035034,0.155474,-0.68228,0.057517,-0.285938,0.267703,-0.121494,0.074026,0.058422,0.098619,0.096267,0.050099,-0.057477,-0.393973,0.029536,-0.224997,0.259759,0.223549,-0.047838,0.035931,0.28628,0.404638,-0.155931,-0.533718,-0.012473,0.065792,0.184732,-0.151004,-0.168541,-0.196499,0.066422,0.091593,0.208741,0.123577,-0.10677,-0.07782,0.068221,-0.09876,-0.119295,-0.222654,0.042735,0.062679,0.209526,-0.083015,-0.135823,-0.219236,0.134719,0.060899,-0.105919,0.022284,0.05304,-0.083125,0.160063,-0.050409,-0.099308,-0.236365,-0.151676,0.016064,0.176004,0.201477,-0.122344,-0.114063,-0.067292,0.196722,-0.122172,0.132995,0.112948,0.050185,0.079463,-0.042849,-0.173531,-0.135626,-0.034079,-0.045022,0.208424,0.108752,-0.14029,-0.111107,-0.272082,0.24565,-0.203183,0.161017,0.030496,-0.098065,0.203217,-0.005949,-0.024665,-0.057443,-0.029912,-0.060115,0.057578,0.06722,-0.128922,-0.062759,-0.143368,0.310093,-0.148406,0.289837,0.166663,0.043063,0.099566,-0.061647,-0.067656,-0.205561,-0.093038,-0.015734,0.016872,0.17948,-0.076365,0.004235,-0.031187,0.23758,-0.127402,0.127739,0.136287,0.136657,0.117715,-0.067326,-0.044435,-0.083824,-0.035381,0.110087,0.144982,0.09669,-0.047877,-0.037508,0.01507,0.045984,-0.067248,0.0271,0.24387,-0.003141,0.013768,-0.03443,-0.168541,-0.19783,0.083613,0.104934,0.183913,0.01136,-0.051001,-0.082789,-0.11562,0.082696,-0.160505,0.012912,-0.005449,0.04903,-0.024845,-0.070737,-0.053463,-0.208032,0.06596,0.164596,-0.072683,0.00147,-0.074793,0.012515,0.076447,0.301221,0.003497,0.205386,-0.031414,0.009943,0.147782,-0.161735,-0.084151,-0.173542,0.036635,0.087214,0.143271,0.075961,0.011306,-0.034023,-0.011246,0.169665,0.099293,0.164426,0.264476,0.025908,0.074164,0.334629,0.04462,-0.414781,-0.002782,-0.095895,0.163358,-0.461411,0.017807,-0.203838,-0.035581,0.181299,-0.099474,0.191156,0.114442,0.017884,0.213759,-0.049579,-0.239915,-0.375384,-0.031443,-0.182101,-0.224085,-0.503339,-0.047613,-0.195063,-0.29655,0.414292,-0.126457,0.256937,-0.044754,0.130687,0.384521,-0.254277,-0.605449,0.047663,0.031979,-0.310386,-0.351616,-0.017506,-0.103214,-0.397987,-0.076542,-0.269329,-0.269054,0.104307,-0.572255,0.082486,0.028454,0.222021,0.113916,0.110491,0.063189,0.099142,0.058541,-0.086426,-0.150016,-0.166453,-0.112398,-0.23995,0.058186,-0.015267,-0.000802,0.010114,0.064537,-0.063532,-0.123661,-0.252868,0.137143,-0.208176,0.134288,-0.296257,-0.270028,-0.09457,-0.253535,-0.050094,-0.059755,-0.014582,-0.021317,-0.039649,-0.040564,-0.224434,-0.057854,-0.354634,0.215522,-0.24826,-0.080124,-0.223279,-0.180656,-0.050403,-0.205086,0.006501,-0.110714,-0.129368,-0.052285,-0.020164,0.17969,-0.086594,0.033365,-0.232956,-0.038457,-0.260467,-0.183654,-0.215035,0.023332,0.0285,-0.005627,-0.107625,-0.107727,-0.055503,0.117431,-0.069941,0.029729,-0.205563,0.054694,-0.196586,0.033789,-0.17087,0.008877,-0.242976,0.219745,-0.074565,0.02101,-0.191295,-0.081327,-0.151142,0.062597,-0.084748,0.182042,-0.114929,0.118774,-0.116061,0.025089,-0.244355,0.145835,-0.175587,0.095389,-0.063074,-0.039868,-0.296711,-0.213609,-0.032217,0.144566,-0.016456,0.204284,0.314115,0.08461,0.05284,-0.011406,-0.128151,-0.07309,-0.222841,0.232711,-0.002579,-0.022085,-0.221961,-0.220821,0.102924,-0.062315,-0.038887,0.057581,0.003454,0.207744,0.099684,-0.097947,-0.191723,-0.015321,-0.125791,0.196854,-0.126166,-0.032284,-0.276763,0.08984,0.151927,-0.052799,-0.210206,0.050401,0.280353,0.264704,0.190117,-0.256353,-0.086235,-0.184979,0.009738,0.072737,0.028545,0.066745,-0.240931,0.139769,0.190252,0.083195,-0.249855,-0.017991,0.329011,0.300924,0.117806,-0.07763,-0.031233,-0.000218,-0.098492,0.173273,0.063981,-0.090029,-0.11881,0.06799,0.22757,-0.057376,-0.142082,-0.152104,0.13708,0.232155,0.168483,0.072949,0.043036,0.067832,-0.05086,0.167259,-0.006402,0.007024,0.024938,0.056933,0.087463,-0.11398,0.113513,-0.312499,-0.196381,-0.212811,-0.121902,0.153043,-0.003495,0.131277,0.006671,0.112341,-0.063581,-0.202768,-0.081295,0.01101,-0.212835,-0.202653,0.063515,-0.462284,-0.075507,-0.532878,-0.338522,0.183978,-0.330895,-0.234929,-0.151859,-0.423815,0.015632,-0.406221,-0.140428,-0.434805,-0.102932,-0.301829,0.01095,-0.411771,-0.305612,-0.082768,-0.313559,0.060396,-0.576118,-0.437516,0.132511,0.069735,-0.007711,0.125775,-0.000433,-0.344937,-0.009925,-0.080265,-0.059566,-0.06794,-0.073305,0.032915,-0.210456,0.051939,-0.106587,-0.060132,0.00207,0.006357,-0.187019,-0.14781,-0.112678,0.032215,0.077906,-0.083375,-0.142391,-0.005245,0.032594,0.075516,-0.040154,0.088277,0.056305,-0.001523,-0.061194,0.024303,0.047226,-0.095838,-0.070561,0.100678,0.003243,0.034661,-0.176138,-0.19526,-0.138957,-0.094742,-0.070178,-0.057803,-0.018346,-0.104945,-0.122344,-0.030647,-0.002529,-0.010915,-0.053794,0.09566,-0.127849,0.063492,0.002039,-0.102949,0.022825,0.031577,-0.114186,0.039239,-0.008387,-0.040692,-0.001736,-0.038088,-0.083597,0.036017,0.039851,0.009684,0.127036,0.073526,-0.073565,-0.012793,-0.054343,-0.184413,0.054885,-0.008192,0.002193,0.010657,-0.016573,0.083194,0.032819,-0.089824,-0.067589,-0.01552,-0.0887,-0.171818,-0.219736,0.007481,-0.148499,-0.19611,-0.02071,-0.059782,-0.075656,0.030525,0.035702,0.096183,-0.106681,-0.233011,-0.042414,0.076901,0.102083,-0.1802,-0.117843,-0.052129,-0.160346,-0.058468,-0.046653,-0.113526,0.010116,-0.005968,-0.111267,-0.130227,-0.118453,-0.016555,-0.132676,-0.046697,0.102584,-0.113784,-0.211314,-0.000596,0.100984,0.06498,-0.044346,-0.115082,-0.114771,-0.191133,-0.142257,-0.10229,-0.066264,-0.205981,-0.124183,-0.065311,-0.000603,-0.137026,-0.162789,0.002831,-0.190407,-0.170166,-0.101462,-0.010803,-0.051094,-0.012152,-0.1265,0.005114,0.035455,0.043511,0.010812,-0.015646,0.040301,-0.108209,-0.107839,0.032819,-0.132239,0.058511,-0.109951,-0.001519,-0.044454,-0.066345,0.019457,0.033649,0.056456,0.062058,0.071246,0.058648,-0.141477,-0.149448,-0.193997,-0.129401,-0.051518,-0.006069,-0.184694,0.040155,0.065156,-0.185751,-0.071233,-0.065935,-0.158485,-0.076083,0.013417,-0.052194,0.092573,-0.222391,-0.006503,-0.002481,-0.09666,-0.094557,-0.193362,-0.027364,-0.131639,-0.198451,-0.059671,0.024786,0.019055,0.05787,-0.022044,-0.138381,0.135271,0.040207,-0.311493,0.055346,0.117601,-0.082725,-0.236588,-0.097902,-0.165337,-0.182211,0.014252,0.095675,-0.147903,0.037519,-0.072922,0.10731,-0.089421,-0.093453,-0.099338,-0.08159,0.072799,-0.119584,-0.310943,-0.152468,-0.138963,-0.263219,-0.093222,-0.01087,-0.039555,-0.087853,0.08707,-0.14915,-0.150835,-0.146084,-0.169027,0.191003,-0.06442,0.111974,0.314101,0.037534,-0.1288,0.162572,-0.340449,0.163078,-0.12058,-0.13179,-0.034806,0.397374,0.085788,0.02792,-0.025646,-0.025458,0.079405,0.217367,0.057069,-0.028896,-0.022897,-0.221399,-0.1088,0.059504,0.09315,-0.066858,-0.259028,-0.201812,-0.105129,-0.10616,-0.04998,0.094436,0.008484,0.133856,0.053639,-0.002592,-0.004058,-0.214293,0.005956,0.051653,0.052475,-0.154084,-0.149699,-0.070378,0.068271,-0.045498,-0.003983,-0.006477,0.098022,0.101309,0.090692,0.065925,0.015186,-0.029714,-0.056632,0.094724,0.00077,-0.037586,-0.308048,0.086007,0.210592,0.019647,-0.038647,-0.072323,-0.00897,-0.040923,0.041951,0.01293,-0.070716,-0.144146,0.021838,0.072386,-0.005899,-0.025944,-0.268911,-0.04574,0.172404,-0.004714,-0.020423,0.005401,-0.013902,0.080032,0.046899,0.028672,-0.120041,-0.066303,-0.188953,0.069262,0.113355,-0.064362,-0.427735,0.057904,0.229036,-2.6e-05,-0.009934,-0.093218,-0.019031,0.027822,-0.017753,0.044352,-0.110855,-0.080802,-0.179264,0.146836,0.097451,-0.071036,-0.588912,0.037462,0.005158,-0.088693,0.025903,0.0956,-0.047043,-0.034169,0.10732,-3.5e-05,-0.065652,-0.131027,-0.010317,0.131473,0.054413,0.017103,-0.336422,0.071469,0.065369,-0.08237,-0.064733,-0.008,-0.010444,0.176755,0.053566,0.022253,-0.064118,-0.203088,-0.089151,0.127594,0.030722,-0.026559,-0.203731,0.032159,0.149051,-0.066444,-0.011426,-0.031665,0.150678,0.241306,0.093184,0.034375,-0.058322,-0.108312,-0.094255,0.060537,0.025958,-0.144205,-0.240725,-0.040948,0.07308,-0.005525,-0.017798,0.098433,0.159658,0.137325,0.066086,0.010902,-0.071689,-0.105759,-0.016501,0.234883,0.06691,-0.093297,-0.207088,-0.063323,0.057706,-0.11049,-0.010745,-0.041991,0.105922,0.343433,0.120079,-0.001514,-0.006375,-0.121193,0.012469,0.028818,0.036482,-0.070816,-0.191048,-0.024256,0.148782,-0.141359,0.015982,-0.250763,0.182529,0.290309,0.094462,0.035179,0.092396,-0.185235,0.075427,0.080362,0.015908,-0.071224,-0.161908,-0.111892,0.244024,-0.255553,0.080363,-0.699922,-0.123162,-0.52573,-0.040941,0.085694,0.123655,-0.152997,0.109479,0.299223,0.008907,0.059737,-0.085502,0.132966,0.206668,-0.207001,0.19253,0.162615,0.30085,-0.030976,0.236943,-0.596084,0.304829,0.100841,-0.062279,-0.041007,0.60111,-0.248917,0.310263,0.625397,0.079366,-0.095182,-0.348847,-0.084297,0.074533,-0.372584,0.066239,-0.381782,-0.09053,-0.209307,0.034263,-0.106541,0.332796,-0.160197,0.061818,0.616061,-0.140721,0.029588,-0.038324,-0.192748,0.04799,-0.066481,-0.055128,-0.464029,-0.000686,-0.096148,0.071933,0.097097,0.113336,0.169582,-0.090137,0.272056,0.07949,-0.065264,-0.298973,0.098006,0.076693,-0.069039,0.128152,-0.279589,0.165701,-0.013336,0.193224,0.265926,-0.011457,0.109307,0.054368,0.131917,0.022704,-0.050716,-0.334824,0.129716,0.116436,0.229291,0.005046,-0.069212,0.069985,-0.040042,0.131483,-0.206336,0.06991,0.065928,0.016888,0.123566,0.174335,-0.142843,-0.091378,-0.047618,0.217268,-0.115087,-0.163,-0.249141,0.121005,-0.107041,0.173126,0.189391,0.021327,-0.00952,0.052377,-0.033202,-0.115164,-0.13691,-0.201654,0.040055,0.039096,-0.045091,-0.099258,-0.034577,0.220873,0.005315,0.112457,0.066426,0.002008,0.117734,-0.023364,-0.057446,0.116743,-0.393834,-0.057561,0.030404,0.215351,-0.003579,-0.03843,-0.085601,0.059647,-0.016276,0.301509,-0.058561,0.089376,0.142606,-0.068669,-0.16845,0.041145,-0.195326,-0.221833,-0.224263,-0.09436,0.012676,-0.01484,-0.336919,0.144425,-0.114802,0.248958,-0.087831,0.022043,0.1116,-0.047972,0.081749,0.03272,-0.135375,-0.445277,0.081479,0.125069,0.094174,-0.045343,-0.533818,0.037205,-0.082532,0.252207,-0.133349,-0.003872,0.288134,-0.005634,0.222731,-0.103167,-0.385251,-0.363213,-0.015973,0.302776,-0.174737,0.076992,-0.543264,-0.003197,-0.100714,0.048856,-0.375056,0.013004,-0.08602,0.028029,0.365528,0.081064,-0.358019,-0.234731,0.171815,0.234155,-0.015162,-0.002871,-0.581042,0.079011,-0.027995,0.223174,0.000865,0.031082,0.067965,-0.106935,0.313314,0.155429,-0.573088,-0.380251,-0.04485,0.15624,0.08443,0.095612,-0.395056,0.119928,0.003141,0.120143,0.017087,0.165297,0.025191,0.020836,0.477262,0.007017,-0.468196,-0.076658,0.083512,0.086273,-0.195673,-0.055742,-0.233,0.236592,0.099971,-0.096946,-0.203841,0.135358,-0.070415,0.102445,0.276268,0.015074,-0.215164,-0.232458,-0.201666,0.004565,0.054556,-0.21412,0.119385,-0.150134,-0.069313,0.385265,0.033301,0.120265,0.168307,0.003445,-0.789407,-0.346041,-0.449044,0.191997,0.115123,-0.287463,-0.457417,0.088887,0.075067,-0.110024,0.321114,0.335955,0.393668,-0.14743,-0.157,0.021428,-0.146475,-0.313358,-0.147881,0.044012,-0.022592,-0.205359,-0.483345,0.154909,0.029338,-0.462089,-0.103304,-0.216392,0.040134,-0.078669,-0.220081,-0.168459,0.003743,-0.185832,-0.053609,-0.034426,0.19457,-0.396355,-0.146727,-0.022214,0.054577,-0.269178,-0.457206,-0.366611,-0.282197,-0.102605,-0.341216,-0.059257,-0.007686,-0.51821,-0.099754,0.008944,-0.084622,-0.039486,-0.028356,-0.345663,0.025714,-0.608971,-0.679809,-0.215667,-0.041928,0.083156,-0.356651,-0.138015,-0.260927,-0.220107,-0.002667,0.027154,0.149485,0.116464,0.064834,0.0186,-0.006336,-0.593502,-0.228059,0.16613,-0.521448,-0.015535,-0.415649,-0.035967,-0.245623,-0.42742,0.020628,-0.006823,-0.055592,0.062547,0.026632,0.134515,-0.082036,-0.295881,0.058177,0.165019,-0.160806,-0.08565,-0.164838,0.043922,-0.128056,-0.368028,0.030045,2.6e-05,0.130152,0.062036,-0.142225,0.172567,-0.076419,-0.189473,-0.043029,0.204643,-0.04844,0.002641,-0.163345,-0.05478,0.075174,-0.224553,-0.032706,0.026186,-0.009683,-0.212876,-0.076292,0.20246,0.034119,-0.340988,0.072158,0.194533,0.036827,-0.020688,-0.07334,-0.198283,0.071785,-0.246182,0.023261,0.066905,0.104682,-0.055988,-0.080584,0.167096,-0.04844,-0.119316,0.042602,0.246955,-0.044112,-0.036798,0.053905,-0.17486,0.024789,-0.136403,0.090133,0.015512,0.144679,-0.226537,-0.109655,0.217147,-0.012148,-0.090297,0.04218,0.232295,-0.121351,-0.104894,-0.009114,-0.208514,0.056915,0.012622,0.214299,0.063346,0.113778,0.072574,-0.385817,0.216756,0.084442,-0.239885,0.136484,0.252475,0.085566,-0.024292,0.014925,-0.304886,-0.067759,-0.064609,0.248314,0.097391,0.026408,-0.121559,-0.547933,0.178256,-0.493795,-0.151689,0.164293,0.222101,0.073554,0.089985,0.111653,-0.28665,-0.094906,-0.010527,0.14574,-0.208305,0.032923,-0.738236,0.099998,0.01377,-0.388957,-0.355463,0.073295,-0.181082,-0.027512,0.110413,-0.308943,-0.119461,-0.110411,-0.310059,0.144362,-0.458131,-0.088303,0.336381,0.120552,0.219744,-0.037386,-0.32083,-0.472752,-0.278985,0.082563,-0.048411,-0.299439,-0.276566,0.454623,0.122099,-0.274636,0.04141,-0.259149,0.32631,-0.620852,-0.388228,-0.066077,-0.550307,-0.400069,-0.206029,0.132674,-0.527486,-0.427209,-0.324664,0.290916,0.172127,-0.1707,0.073405,-0.342587,-0.04531,-0.630056,-0.243189,-0.081095,-0.222381,-0.4325,-0.102568,0.229742,-0.360686,-0.147464,-0.184693,-0.045091,0.167908,-0.235777,-0.037451,-0.265303,-0.005709,-0.127168,-0.19183,-0.031146,-0.544313,-0.503606,-0.120514,0.097453,-0.386858,-0.033341,-0.150208,-0.066164,0.257909,-0.227094,-0.00621,0.102465,0.121673,0.066147,-0.201899,-0.013585,-0.045302,-0.01664,-0.080373,0.085608,-0.222756,0.033644,-0.377182,-0.100309,0.146957,-0.155589,-0.024148,0.142752,0.1681,-0.018497,-0.064121,-0.047133,0.217888,-0.009688,0.149814,-0.263649,-0.269994,0.071178,-0.058102,0.016326,0.0293,-0.192494,-0.007041,0.0086,-0.238596,-0.226164,-0.196,-0.058722,0.135179,0.064804,0.049256,-0.174087,-0.136391,-0.020534,0.1135,0.003393,-0.018084,-0.132137,-0.103388,0.182526,-0.163857,-0.105191,-0.196146,0.024653,0.079018,0.07067,0.00187,-0.159373,-0.095575,-0.131929,0.132242,-0.026324,0.015364,0.081044,-0.042965,0.024292,-0.156898,-0.234707,-0.057426,0.088603,0.043111,0.229393,-0.002262,-0.139041,-0.088458,-0.063535,0.203432,-0.445964,0.008663,0.08573,-0.019171,0.125466,-0.18528,-0.099247,-0.23516,0.001889,0.040784,0.195711,0.08054,-0.049436,-0.000294,-0.032387,0.117484,-0.105046,0.08507,-0.079308,0.029603,0.079502,-0.06342,-0.143094,-0.266085,-0.067035,0.119356,0.236476,-0.028999,-0.022056,-0.046129,-0.014978,0.118767,0.007468,-0.125041,0.237834,-0.139462,0.164562,0.049588,-0.135561,-0.308901,0.103598,0.110217,0.140001,0.001939,-0.175301,-0.015098,0.078607,0.090328,-0.138665,-0.14457,0.205954,-0.071627,0.128661,0.217756,-0.222642,-0.086516,0.024379,0.039652,0.101166,0.109245,-0.021354,-0.180975,0.045278,0.130352,-0.218646,-0.010704,0.206201,0.070108,0.326636,-0.159047,-0.398504,0.012567,-0.066715,0.031577,-0.019439,0.03245,-0.222415,-0.275699,-0.022922,0.122476,-0.029393,0.099168,-0.001872,0.074993,-0.007701,0.023741,0.125895,-0.207931,-0.024618,-0.019855,-0.040028,-0.260009,-0.21529,0.104708,-0.113426,0.022559,-0.181967,-0.102383,-0.034708,0.060025,-0.167875,-0.196538,0.164603,-0.429849,-0.017979,-0.436037,-0.381505,-0.201076,-0.072276,-0.262999,-0.363521,-0.055104,-0.257927,-0.346282,-0.043435,0.018327,-0.263147,-0.195519,0.069408,-0.48791,0.04193,-0.286415,-0.228089,-0.247073,-0.050356,-0.401034,-0.239841,-0.071166,-0.268082,-0.125067,0.012215,0.032459,-0.27734,0.006769,0.049443,-0.401522,0.040205,-0.397875,-0.196606,-0.108719,-0.215287,-0.344934,-0.184808,0.088326,-0.319976,-0.189471,0.037726,0.129962,-0.167261,-0.262625,0.093414,-0.607401,0.168566,-0.029355,-0.368003,0.010722,-0.166348,-0.165682,-0.228874,0.109684,-0.063584,-0.321516,-0.028909,0.057698,0.023848,-0.185608,0.107319,-0.180363,-0.014023,-0.012072,-0.377752,-0.058218,-0.221854,-0.150266,-0.199999,0.179615,0.010885,-0.026945,0.135897,0.0488,-0.128826,-0.317071,0.08277,-0.047807,0.030754,0.080389,-0.274361,0.245953,-0.248657,-0.030045,-0.128932,0.182725,-0.291321,-0.169262,-0.214272,0.079382,0.011649,0.425101,0.032926,0.183159,-0.06102,-0.073186,0.077446,0.216715,-0.093497,0.001703,-0.097453,0.076433,0.019655,-0.091864,-0.263937,-0.011818,0.05144,0.204382,-0.041061,0.175323,0.110212,-0.151578,0.056303,0.279014,0.005819,-0.034377,0.001854,-0.166646,0.189182,-0.001893,0.035822,0.128336,0.189698,0.001673,-0.065126,0.153783,-0.045986,-0.11252,-0.004755,0.27897,0.023223,0.024345,0.104391,-0.210487,0.210723,-0.05018,0.183297,-0.028193,0.215674,-0.256289,-0.163649,0.177747,-0.221234,-0.117257,0.053614,0.225678,-0.018232,0.07242,0.027338,-0.173788,0.100469,0.020721,0.245199,0.005545,0.028646,0.029108,-0.329354,0.25094,-0.23048,-0.133576,0.147653,-0.085401,-0.017684,0.009427,0.058181,-0.172872,0.048896,0.09081,0.09842,-0.473106,-0.048739,-0.145232,-0.099302,0.172858,-0.251111,-0.307227,0.222915,-0.400979,0.075378,0.165255,-0.10162,-0.141988,-0.034914,-0.193804,0.172751,-0.70569,-0.002002,0.040804,0.163522,-0.253052,-0.367235,-0.181521,-0.031127,-0.260771,0.124385,-0.111822,-0.140907,-0.129276,-0.07752,-0.019536,0.137057,-0.604349,-0.188649,-0.23804,-0.457601,0.171093,0.144603,-0.101542,-0.314705,0.245162,-0.225584,0.110583,-0.106516,-0.054425,-0.615722,-0.080411,-0.293305,0.236332,0.017079,-0.225279,-0.218932,-0.018234,0.129741,-0.035791,0.166159,0.180097,0.132873,0.066849,0.071122,-0.251387,-0.29861,-0.003415,-0.039272,0.145321,0.061421,0.123297,-0.27574,0.103114,0.059237,-0.203795,0.088721,0.116992,0.142358,0.009662,-0.121424,-0.09431,0.197495,0.174213,0.0756,0.176882,0.139959,-0.010992,-0.170148,0.229796,-0.009234,0.065668,-0.030188,-0.273123,-0.076209,0.05698,-0.278679,-0.193712,0.103864,-0.039311,0.103738,-0.043813,-0.047427,0.128895,-0.102944,0.176652,-0.062259,-0.0584,-0.163372,-0.010129,-0.063011,0.056762,-0.098259,-0.137097,0.105047,-0.043997,0.204681,-0.176577,-0.037417,0.01731,0.056637,0.17024,-0.081842,-0.167458,0.097611,0.116059,-0.071162,-0.021054,-0.004027,-0.050756,-0.20308,-0.037581,0.243328,-0.082379,-0.017137,-0.053571,0.100663,0.124571,-0.007755,-0.193157,0.025827,0.00706,0.050409,-0.160723,-0.044829,-0.25903,-0.265976,-0.307008,0.169516,-0.126384,0.082217,-0.158636,-0.072567,0.021812,-0.098766,-0.059774,-0.009151,0.124349,-0.01426,0.032252,-0.106423,-0.080219,-0.08586,0.2011,-0.026991,0.021533,-0.03156,-0.175882,-0.129669,0.097187,-0.049448,-0.035889,0.10904,0.221916,-0.027143,0.036479,0.095409,-0.302892,-0.156679,-0.126441,-0.057983,-0.153855,0.015491,0.09898,-0.075139,0.151744,-0.219516,-0.00434,0.095625,0.218979,0.109786,-0.011004,0.025911,-0.107738,-0.128257,0.087925,0.072538,0.006539,0.081002,-0.130895,-0.08013,0.072162,-0.213295,-0.198275,0.129816,-0.327125,-0.081662,0.108011,-0.071874,-0.253894,0.015778,0.152108,0.042484,-0.04502,0.044617,0.170834,0.064829,-0.144539,-0.240087,-0.079546,-0.02289,-0.655744,-0.041111,0.065723,-0.2328,-0.089677,0.130581,0.038201,0.050128,-0.166329,-0.20524,0.103881,0.02152,-0.301253,-0.26739,-0.223215,-0.061343,-0.394112,0.05573,0.055458,0.001568,-0.095783,0.05599,0.032674,0.197024,-0.160812,0.045003,-0.068306,0.00761,-0.108744,-0.486518,-0.103923,0.025795,-0.152418,0.135615,-0.101885,-0.459725,-0.078766,0.075048,0.00914,0.185609,-0.293101,-0.204853,0.230578,-0.516299,0.256961,0.097277,-0.106868,-0.214474,0.285567,-0.058337,-0.108973,0.057846,0.115393,-0.515757,-0.311995,-0.256728,0.294065,0.008192,-0.269908,-0.080118,0.272604,0.38739,-0.008304,0.106032,0.270482,0.20392,-0.15497,-0.114187,-0.16043,-0.038678,0.087622,0.01321,0.127423,0.152604,-0.111436,0.014579,0.216176,-0.145095,-0.108462,0.085186,0.286714,0.091198,0.064702,-0.211704,-0.136532,0.293678,0.122191,0.1256,-0.092689,0.112678,-0.073247,-0.178715,0.190728,-0.4547,0.016316,-0.109918,0.043239,-0.09648,0.016442,-0.209968,-0.253786,0.079,0.009121,0.172153,-0.230825,0.08191,0.14173,-0.088028,0.216686,-0.353938,-0.075803,-0.086733,-0.236585,0.220521,0.111907,-0.027393,-0.151878,0.066858,0.08313,0.154969,-0.290187,0.013986,0.210352,-0.008654,-0.007744,-0.176309,-0.206654,0.1302,-0.353743,-0.136448,0.038589,-0.169389,-0.10745,-0.078485,0.1182,0.18769,-0.247247,0.187099,0.308979,-0.076721,-0.212109,-0.096347,-0.143836,-0.394862,-0.59155,0.057259,-0.000339,-0.156942,-0.396809,0.111661,0.014303,0.17388,-0.192081,-0.088142,-0.121688,-0.076407,-0.261861,-0.18388,-0.035141,-0.396469,-0.813578,-0.034285,0.060399,-0.213605,-0.526846,0.146946,-0.030838,0.188188,-0.167001,-0.065826,0.133859,0.02181,-0.333611,-0.346364,-0.146667,-0.261771,-0.631606,-0.095094,-0.040533,-0.602164,-0.569569,0.054811,-0.048549,0.142005,-0.112318,-9.7e-05,0.190038,0.008324,-0.311647,0.013521,-0.076548,-0.169576,-0.541551,-0.37195,-0.011369,-0.245737,-0.486911,0.027064,-0.119605,0.096312,-0.053598,0.045404,0.198961,-0.048413,-0.378715,-0.065447,-0.129002,-0.366685,-0.227569,0.002877,0.0186,-0.285692,-0.408017,0.06904,-0.071917,0.079171,-0.133518,0.0201,0.054655,-0.05374,-0.162045,-0.145267,0.083287,-0.203051,-0.55429,-0.101518,0.031926,-0.10756,-0.319153,0.182802,-0.159937,0.032585,-0.099184,0.017809,0.209268,0.163228,-0.083049,-0.277212,-0.028841,-0.088538,-0.341401,0.170544,-0.033718,-0.267003,-0.312541,0.237722,-0.086912,0.063736,-0.147198,0.058183,0.115831,0.066813,-0.151528,-0.058933,-0.087297,-0.067299,-0.102468,-0.158512,0.017308,-0.142847,-0.188648,0.30037,0.141245,0.011417,-0.223429,-0.142605,0.091976,0.110399,-0.499843,0.04932,-0.125338,0.197709,-0.280412,0.284147,-0.249255,-0.076199,-0.002718,-0.016361,0.108749,0.011916,-0.015653,0.108306,0.323292,0.105869,-0.004711,-0.245581,-0.413014,-0.07132,-0.077926,0.076501,0.123616,0.029105,-0.386066,-0.146765,0.265276,-0.226948,-0.310274,0.020888,0.010369,0.241531,0.120748,-0.436503,-0.090174,-0.085756,-0.028258,0.1048,0.098151,-0.167486,-0.25973,0.031533,0.166203,-0.147688,-0.450214,-0.02052,0.212049,0.297473,0.130136,0.034323,0.07259,0.083474,-0.052221,0.157312,0.043948,-0.155286,-0.266676,0.16713,0.088358,-0.040643,-0.179145,-0.163478,0.128586,0.337233,0.203613,0.150348,0.03208,-0.019087,-0.134238,0.249524,-0.062516,-0.283801,-0.121407,0.035013,0.08508,-0.053543,-0.004921,-0.250312,0.271286,0.233557,0.110599,0.224473,-0.02899,-0.055857,-0.019829,0.231098,-0.095909,-0.248012,-0.343973,0.137579,0.156485,0.099965,0.021165,-0.237351,0.066824,-0.204705,0.122641,0.064728,-0.107504,-0.091123,-0.08197,-0.098017,-0.051923,-0.236733,-0.310632,0.184711,-0.010707,-0.110942,0.023279,-0.180377,-0.22001,-0.490668,-0.218142,0.028071,-0.143627,-0.149704,0.054881,-0.341307,0.042875,-0.221431,-0.174,-0.026693,0.135711,0.003979,-0.061481,-0.155414,-0.112154,-0.393599,-0.483305,0.040519,-0.147481,-0.159924,-0.204102,-0.163052,0.014947,-0.144482,-0.105222,-0.398498,-0.215728,-0.034278,0.003832,-0.205959,-0.186425,-0.165777,-0.342564,0.0191,-0.280311,-0.270416,-0.043533,-0.084905,0.092638,-0.193791,-0.069139,-0.198505,0.072734,0.048197,0.011667,-0.149127,-0.038704,-0.257269,-0.237479,0.054594,-0.214278,-0.324949,0.070225,-0.042086,0.072676,-0.219974,-0.05288,-0.142828,-0.162427,0.015941,0.032111,-0.238247,-0.205009,-0.335505,-0.413351,0.127962,-0.195684,-0.183053,0.023871,0.011501,-0.037201,-0.041149,0.09197,-0.283967,0.098409,-0.011121,0.041599,-0.128129,0.071506,-0.171296,-0.174591,0.070189,-0.292719,-0.198802,-0.062183,-0.02352,-0.082031,-0.204213,0.019802,0.075987,-0.070643,0.035777,0.016812,-0.154694,-0.059123,0.024304,-0.338864,-0.013736,-0.517259,-0.259203,0.0324,0.107361,-0.087197,0.00764,0.003063,0.009918,0.088792,0.034333,-0.01144,0.446956,0.428103,0.243902,0.543253,-0.086809,0.110331,-0.015913,-0.238831,-0.232923,0.148379,-0.580327,0.454217,0.852441,0.132681,0.166903,-0.039521,-0.457598,0.05345,-0.33179,-0.5309,0.030019,-0.525376,-0.847642,-0.292718,-0.263503,0.009503,-0.599064,0.105857,0.409592,0.094,0.055028,0.041371,-0.367721,0.186677,-0.512499,-0.399588,0.028033,-0.567862,-0.774139,-0.053739,-0.012822,-0.029721,-0.189568,-0.415378,0.307042,0.217279,-0.025213,0.074911,-0.098916,-0.316181,-0.37058,-0.357148,-0.014925,-0.309283,-0.588071,-0.08953,-0.30094,0.027086,-0.000868,0.007148,-0.075676,0.3131,-0.041039,0.025231,-0.183074,0.036718,-0.537763,-0.165512,0.024545,-0.293569,-0.373145,0.015699,-0.195516,0.041473,-0.334578,-2.5e-05,-0.004378,0.18302,-0.0814,0.047942,-0.13478,0.084133,-0.365056,-0.059079,0.00279,-0.447591,-0.192328,-0.04383,-0.241013,-0.079951,-0.245611,-0.002766,0.031476,0.257055,-0.170834,0.043087,-0.107303,0.030425,-0.122722,-0.14981,0.029248,0.015818,-0.143218,-0.016197,-0.070947,0.101503,-0.238771,-0.04211,0.253518,0.182563,0.252089,-0.025051,-0.145996,0.052263,-0.202112,-0.198452,0.019274,-0.295862,-0.449673,-0.11075,-0.043666,0.027501,-0.103987,-0.040639,-0.096847,0.226878,0.297029,0.009224,-0.103385,-0.111811,-0.341584,-0.264098,0.011654,-0.263284,-0.522851,-0.235234,-0.202305,-0.002093,-0.235208,0.02988,-0.060474,0.188665,0.010789,0.047916,-0.213121,0.348751,-0.318578,-0.23216,-0.055544,-0.159713,-0.322459,-0.20967,-0.284465,0.175486,-0.273119,0.006453,0.137319,0.166794,-0.199704,0.059746,-0.346448,0.12602,-0.219008,-0.235145,0.019758,-0.461067,-0.668385,-0.218195,-0.299057,0.098305,-0.200181,-0.048818,0.117101,0.413376,-0.234907,0.110432,-0.329885,0.112979,-0.132915,-0.290584,0.020744,-0.480207,-0.303555,-0.231914,-0.350233,0.064763,-0.415764,-0.189424,0.316514,0.268015,-0.048305,0.096594,-0.179156,0.496935,-0.060313,-0.243689,-0.023282,-0.362851,-0.442308,-0.314306,-0.43063,-0.115089,-0.519625,-0.032984,0.361942,0.217743,-0.075552,0.034654,-0.140704,-0.238377,0.233937,0.07871,0.005531,-0.187709,-0.14312,0.056882,0.021369,0.034851,-0.0663,-0.030827,0.196918,0.14118,0.085714,0.101369,-0.143914,-0.071385,-0.286091,-0.095581,0.282121,-0.042354,-0.252917,0.232828,-0.151758,0.039271,-0.056684,0.161227,-0.556148,-0.132374,-0.313662,0.271507,-0.081628,-0.027147,-0.159555,0.201873,0.295236,-0.080326,0.022714,0.262801,0.169773,0.067201,-0.062679,-0.087003,-0.076497,0.247434,-0.203306,-0.015135,-0.045372,0.128324,-0.123306,0.166845,-0.097112,-0.200492,0.080818,0.267205,0.182019,0.059684,-0.091547,0.015656,0.09862,0.077454,-0.141631,-0.222051,0.187864,0.218931,0.031155,0.273028,-0.312443,-0.098187,0.007845,0.284914,0.000639,0.092765,-0.083964,-0.215806,0.031279,0.06611,0.09554,-0.369677,0.062943,0.23274,0.06808,0.261743,-0.555773,-0.1233,0.037906,-0.768535,0.228528,0.07292,0.023449,-0.170693,-0.048525,0.224914,0.108972,-0.481195,0.007938,0.230727,0.000968,0.091086,-0.34676,-0.034531,-0.052698,-0.303446,-0.028485,0.048742,0.025643,0.106877,-0.476696,-0.128375,0.182774,-0.328194,0.089825,0.032566,0.111491,-0.210742,-0.049515,-0.051735,-0.218664,-0.704016,0.160982,-0.107878,-0.167615,-0.280262,-0.063223,-0.060633,0.230668,-0.570611,-0.037331,0.08571,0.111157,-0.296757,-0.257557,-0.114498,-0.004196,-0.624907,0.011599,-0.120399,-0.249905,-0.221604,-0.081706,-0.023776,0.071863,-0.261049,0.027852,0.069825,0.110452,-0.313684,-0.157369,-0.216458,-0.059657,-0.384927,-0.069565,-0.111753,-0.211329,-0.139173,0.15583,-0.076785,-0.067329,-0.292848,0.035451,-0.040392,0.13855,-0.306251,-0.217359,-0.15829,-0.096977,-0.432334,0.054684,-0.22022,-0.103503,-0.172364,-0.079861,-0.088044,0.048635,-0.270253,-0.228603,0.178329,0.080085,-0.1575,-0.230487,-0.091931,-0.039944,-0.148886,0.026045,-0.180348,0.064696,-0.134646,0.068104,0.039668,-0.051958,-0.307135,0.062192,0.13173,0.10956,0.088559,-0.055693,-0.215622,-0.15833,-0.507312,0.086043,0.049433,-0.078382,0.023708,0.109825,-0.302415,0.054066,-0.514012,0.001276,0.029549,0.049449,-0.152535,-0.129933,-0.119871,-0.022928,-0.457257,0.267711,-0.012284,0.022263,-0.067395,0.289867,-0.138803,-0.015828,-0.455511,0.022933,0.25767,0.08972,-0.297227,-0.192809,0.039545,-0.122375,-0.088249,-0.163777,0.008333,-0.072414,-0.149956,0.021215,-0.262999,0.003517,-0.614357,0.275005,0.372702,-0.135055,0.474461,-0.065477,0.011748,-0.024591,0.215091,-0.017479,0.574219,-0.012859,0.24677,0.531454,-0.001786,-0.121399,0.025022,-0.070143,-0.003731,-0.37578,0.004529,-0.158746,-0.053395,-0.123823,0.12518,-0.037946,0.276144,-0.0831,0.033424,0.426481,-0.294463,-0.069271,0.01404,0.014438,0.122254,-0.19997,-0.128925,-0.181843,0.023906,-0.174697,0.256366,0.018993,0.087521,0.003436,-0.146229,0.148007,-0.140455,-0.059451,0.02886,0.10911,-0.060543,-0.164012,-0.03485,-0.169874,0.103052,-0.258052,0.23711,-0.051707,-0.029437,0.143486,-0.098487,-0.01667,-0.14389,-0.036267,0.056215,0.040783,-0.017494,0.008341,-0.048078,-0.073563,0.067974,-0.13817,0.017851,0.081954,-0.059858,0.200595,-0.102544,-0.06959,-0.205843,-0.242201,0.078087,0.031685,-0.099518,-0.018944,-0.05964,-0.028107,0.190777,-0.039855,0.134125,-0.073214,0.118732,0.168537,-0.094712,-0.007258,-0.277118,-0.261296,0.147308,-0.034314,-0.335141,0.072447,-0.116609,0.090177,0.079445,0.048048,0.238774,0.020474,0.008466,0.126384,-0.087849,0.124101,-0.104154,0.22622,0.084204,-0.042335,0.095585,0.038857,-0.005339,0.047562,0.08661,-0.103196,0.186872,-0.059965,-0.029503,0.125444,0.028495,0.046923,-0.122888,0.134898,0.057575,-0.052884,0.076853,0.051512,-0.018366,-0.065114,0.070057,-0.163493,0.109129,-0.176394,-0.017246,0.081517,-0.153849,-4.1e-05,-0.137223,-0.024183,-0.0098,0.194631,0.138278,0.095198,-0.037913,-0.067307,0.04663,-0.221773,0.100694,-0.162789,0.027198,0.086294,-0.061967,0.038775,-0.199978,-0.107422,-0.075201,0.10233,0.116598,0.057443,-0.069627,0.005193,-0.015407,-0.226859,0.246165,-0.170946,0.029623,-0.058638,-0.076858,0.078649,-0.175947,-0.163111,0.018624,0.094027,0.042143,-0.069446,0.043286,-0.340194,-0.050846,-0.105765,0.218644,-0.06248,0.042108,0.007571,-0.152227,0.182756,0.01137,-0.009534,0.051092,0.133593,0.096841,0.045131,0.022678,-0.452219,-0.066196,-0.027095,0.196012,0.020186,-0.044284,-0.015155,-0.037152,0.046125,-0.087807,0.033032,-0.055462,0.164678,-0.381825,0.367328,0.051358,-0.359547,-0.040119,0.028282,-0.070307,-0.069957,0.126986,-0.16346,-0.007897,0.089114,0.055437,0.076843,-0.145759};
const float L6_FULLYCONNECTED_BIAS_DATA[DEF_L6_FULLYCONNECTED_OUTPUT_DEPTH] = {1.025295,-0.748497,-0.498686,-0.487115,-0.201974,1.226575,-0.055615,1.162352,-0.314598,-0.099843,0.511089,-0.057559,-0.410143,1.993453,-0.213922,0.941875};

//Layer 7 : FullyConnected parameters
const uint8_t L7_FULLYCONNECTED_BATCHES = 1;
const uint8_t L7_FULLYCONNECTED_OUTPUT_DEPTH = 4;
const uint8_t L7_FULLYCONNECTED_ACCUM_DEPTH = 16;
const float L7_FULLYCONNECTED_OUTPUT_ACTIVATION_MIN = -3.4028234663852886e+38;
const float L7_FULLYCONNECTED_OUTPUT_ACTIVATION_MAX = 3.4028234663852886e+38;
const float L7_FULLYCONNECTED_WT_DATA[DEF_L7_FULLYCONNECTED_OUTPUT_DEPTH*DEF_L7_FULLYCONNECTED_ACCUM_DEPTH] = {-0.251951,0.124587,-0.209508,0.23126,0.388429,-0.009404,0.16106,-0.19558,-0.248876,0.024298,0.017058,0.354755,-0.268599,-0.230556,-0.285918,0.3381,-0.316444,0.093995,-0.267134,0.310055,0.294985,0.083789,0.143428,-0.175208,-0.304741,0.018455,0.040138,0.390895,-0.212139,-0.290677,-0.274264,0.290092,-0.266022,0.040151,-0.26337,0.235992,-0.345441,0.009382,0.184641,-0.114806,-0.303753,0.099474,0.114652,0.426229,-0.273926,-0.181981,-0.243272,0.360658,-0.23496,0.083831,-0.235151,0.213308,-0.22373,0.064647,0.21795,-0.182079,-0.303076,0.025494,0.086933,0.349105,-0.269666,-0.100891,-0.323368,0.367953};
const float L7_FULLYCONNECTED_BIAS_DATA[DEF_L7_FULLYCONNECTED_OUTPUT_DEPTH] = {-0.454812,0.677258,-1.355467,-0.957265};

//Layer 8 : SoftMax parameters
const uint8_t L8_SOFTMAX_OUTER_SIZE = 1;
const uint8_t L8_SOFTMAX_DEPTH = 4;
const float L8_SOFTMAX_BETA = 1.0;

#endif        /* TFLITE_MAGIC_WAND_PARAMETERS_H_ */
